{"learner":{"attributes":{"scikit_learn":"{\"_estimator_type\": \"classifier\"}"},"feature_names":["Destination Port","Flow Duration","Total Fwd Packets","Total Length of Fwd Packets","Fwd Packet Length Max","Fwd Packet Length Min","Fwd Packet Length Mean","Fwd Packet Length Std","Bwd Packet Length Max","Bwd Packet Length Min","Bwd Packet Length Mean","Bwd Packet Length Std","Flow Bytes/s","Flow Packets/s","Flow IAT Mean","Flow IAT Std","Flow IAT Max","Flow IAT Min","Fwd IAT Total","Fwd IAT Mean","Fwd IAT Std","Fwd IAT Max","Fwd IAT Min","Bwd IAT Total","Bwd IAT Mean","Bwd IAT Std","Bwd IAT Max","Bwd IAT Min","Fwd Header Length","Bwd Header Length","Fwd Packets/s","Bwd Packets/s","Min Packet Length","Max Packet Length","Packet Length Mean","Packet Length Std","Packet Length Variance","FIN Flag Count","PSH Flag Count","ACK Flag Count","Average Packet Size","Subflow Fwd Bytes","Init_Win_bytes_forward","Init_Win_bytes_backward","act_data_pkt_fwd","min_seg_size_forward","Active Mean","Active Max","Active Min","Idle Mean","Idle Max","Idle Min"],"feature_types":["int","int","int","int","int","int","float","float","int","int","float","float","float","float","float","float","int","int","int","float","float","int","int","int","float","float","int","int","int","float","float","float","float","float","float","float","float","float","float","float","float","float","float","float","float","float","float","float","float","float","float","float"],"gradient_booster":{"model":{"cats":{"enc":[],"feature_segments":[],"sorted_idx":[]},"gbtree_model_param":{"num_parallel_tree":"1","num_trees":"100"},"iteration_indptr":[0,1,2,3,4,5,6,7,8,9,10,11,12,13,14,15,16,17,18,19,20,21,22,23,24,25,26,27,28,29,30,31,32,33,34,35,36,37,38,39,40,41,42,43,44,45,46,47,48,49,50,51,52,53,54,55,56,57,58,59,60,61,62,63,64,65,66,67,68,69,70,71,72,73,74,75,76,77,78,79,80,81,82,83,84,85,86,87,88,89,90,91,92,93,94,95,96,97,98,99,100],"tree_info":[0,0,0,0,0,0,0,0,0,0,0,0,0,0,0,0,0,0,0,0,0,0,0,0,0,0,0,0,0,0,0,0,0,0,0,0,0,0,0,0,0,0,0,0,0,0,0,0,0,0,0,0,0,0,0,0,0,0,0,0,0,0,0,0,0,0,0,0,0,0,0,0,0,0,0,0,0,0,0,0,0,0,0,0,0,0,0,0,0,0,0,0,0,0,0,0,0,0,0,0],"trees":[{"base_weights":[-1.831365E-5,8.16436E-2,-1.7348433E-1],"categories":[],"categories_nodes":[],"categories_segments":[],"categories_sizes":[],"default_left":[0,0,0],"id":0,"left_children":[1,-1,-1],"loss_changes":[1.13277E1,0E0,0E0],"parents":[2147483647,0,0],"right_children":[2,-1,-1],"split_conditions":[2.43E2,8.16436E-2,-1.7348433E-1],"split_indices":[43,0,0],"split_type":[0,0,0],"sum_hessian":[5.997512E0,4.4381742E0,1.5593374E0],"tree_param":{"num_deleted":"0","num_feature":"52","num_nodes":"3","size_leaf_vector":"1"}},{"base_weights":[-7.591299E-3,-1.545623E-1,8.078311E-2],"categories":[],"categories_nodes":[],"categories_segments":[],"categories_sizes":[],"default_left":[0,0,0],"id":1,"left_children":[1,-1,-1],"loss_changes":[9.9585495E0,0E0,0E0],"parents":[2147483647,0,0],"right_children":[2,-1,-1],"split_conditions":[4.4935406E2,-1.545623E-1,8.078311E-2],"split_indices":[12,0,0],"split_type":[0,0,0],"sum_hessian":[5.9449277E0,1.749525E0,4.195403E0],"tree_param":{"num_deleted":"0","num_feature":"52","num_nodes":"3","size_leaf_vector":"1"}},{"base_weights":[-1.2363881E-2,7.9791985E-2,-1.3561693E-1],"categories":[],"categories_nodes":[],"categories_segments":[],"categories_sizes":[],"default_left":[0,0,0],"id":2,"left_children":[1,-1,-1],"loss_changes":[8.608509E0,0E0,0E0],"parents":[2147483647,0,0],"right_children":[2,-1,-1],"split_conditions":[2.43E2,7.9791985E-2,-1.3561693E-1],"split_indices":[43,0,0],"split_type":[0,0,0],"sum_hessian":[5.9121566E0,3.9416535E0,1.9705029E0],"tree_param":{"num_deleted":"0","num_feature":"52","num_nodes":"3","size_leaf_vector":"1"}},{"base_weights":[-1.4788638E-2,-1.2149994E0,7.891188E-2,-2.4995656E-1,5.372553E-2],"categories":[],"categories_nodes":[],"categories_segments":[],"categories_sizes":[],"default_left":[0,0,0,0,0],"id":3,"left_children":[1,3,-1,-1,-1],"loss_changes":[7.611996E0,8.455124E0,0E0,0E0,0E0],"parents":[2147483647,0,0,1,1],"right_children":[2,4,-1,-1,-1],"split_conditions":[4.4935406E2,5.404222E6,7.891188E-2,-2.4995656E-1,5.372553E-2],"split_indices":[12,18,0,0,0],"split_type":[0,0,0,0,0],"sum_hessian":[5.8955383E0,2.1597404E0,3.735798E0,1.0000933E0,1.1596471E0],"tree_param":{"num_deleted":"0","num_feature":"52","num_nodes":"5","size_leaf_vector":"1"}},{"base_weights":[-2.3690661E-2,7.780474E-2,-1.0984507E0,-2.017838E-1,5.0421573E-2],"categories":[],"categories_nodes":[],"categories_segments":[],"categories_sizes":[],"default_left":[0,0,0,0,0],"id":4,"left_children":[1,-1,3,-1,-1],"loss_changes":[6.744615E0,0E0,5.931601E0,0E0,0E0],"parents":[2147483647,0,0,2,2],"right_children":[2,-1,4,-1,-1],"split_conditions":[2.43E2,7.780474E-2,3E0,-2.017838E-1,5.0421573E-2],"split_indices":[43,0,44,0,0],"split_type":[0,0,0,0,0],"sum_hessian":[5.8354807E0,3.5003788E0,2.3351018E0,1.3192494E0,1.0158525E0],"tree_param":{"num_deleted":"0","num_feature":"52","num_nodes":"5","size_leaf_vector":"1"}},{"base_weights":[-2.6257735E-2,7.692804E-2,-1.0051845E0,5.808298E-2,-2.3240118E-1],"categories":[],"categories_nodes":[],"categories_segments":[],"categories_sizes":[],"default_left":[0,0,0,0,0],"id":5,"left_children":[1,-1,3,-1,-1],"loss_changes":[6.083078E0,0E0,8.650416E0,0E0,0E0],"parents":[2147483647,0,0,2,2],"right_children":[2,-1,4,-1,-1],"split_conditions":[3.2E1,7.692804E-2,2.43E2,5.808298E-2,-2.3240118E-1],"split_indices":[45,0,43,0,0],"split_type":[0,0,0,0,0],"sum_hessian":[5.8181677E0,3.3278801E0,2.4902878E0,1.3846735E0,1.1056144E0],"tree_param":{"num_deleted":"0","num_feature":"52","num_nodes":"5","size_leaf_vector":"1"}},{"base_weights":[-3.1591326E-2,-9.2557776E-1,7.59185E-2,-2.4883215E-1,6.1997827E-2],"categories":[],"categories_nodes":[],"categories_segments":[],"categories_sizes":[],"default_left":[0,0,0,0,0],"id":6,"left_children":[1,3,-1,-1,-1],"loss_changes":[5.4976273E0,1.0320377E1,0E0,0E0,0E0],"parents":[2147483647,0,0,1,1],"right_children":[2,4,-1,-1,-1],"split_conditions":[4.4935406E2,8.8E1,7.59185E-2,-2.4883215E-1,6.1997827E-2],"split_indices":[12,0,0,0,0],"split_type":[0,0,0,0,0],"sum_hessian":[5.782641E0,2.6341834E0,3.1484575E0,1.0065029E0,1.6276805E0],"tree_param":{"num_deleted":"0","num_feature":"52","num_nodes":"5","size_leaf_vector":"1"}},{"base_weights":[-3.8330182E-2,7.572462E-2,-9.305796E-1,-2.1886814E-1,5.889371E-2],"categories":[],"categories_nodes":[],"categories_segments":[],"categories_sizes":[],"default_left":[0,0,0,0,0],"id":7,"left_children":[1,-1,3,-1,-1],"loss_changes":[5.488017E0,0E0,8.2187805E0,0E0,0E0],"parents":[2147483647,0,0,2,2],"right_children":[2,-1,4,-1,-1],"split_conditions":[3.2E1,7.572462E-2,8.8E1,-2.1886814E-1,5.889371E-2],"split_indices":[45,0,0,0,0],"split_type":[0,0,0,0,0],"sum_hessian":[5.7384977E0,3.1135764E0,2.624921E0,1.1950694E0,1.4298517E0],"tree_param":{"num_deleted":"0","num_feature":"52","num_nodes":"5","size_leaf_vector":"1"}},{"base_weights":[-4.088306E-2,7.495644E-2,-8.748535E-1,-2.4774168E-1,6.3277766E-2],"categories":[],"categories_nodes":[],"categories_segments":[],"categories_sizes":[],"default_left":[0,0,0,0,0],"id":8,"left_children":[1,-1,3,-1,-1],"loss_changes":[5.08694E0,0E0,1.0585323E1,0E0,0E0],"parents":[2147483647,0,0,2,2],"right_children":[2,-1,4,-1,-1],"split_conditions":[2.43E2,7.495644E-2,8.8E1,-2.4774168E-1,6.3277766E-2],"split_indices":[43,0,0,0,0],"split_type":[0,0,0,0,0],"sum_hessian":[5.7219586E0,2.9895945E0,2.7323642E0,1.0126736E0,1.7196907E0],"tree_param":{"num_deleted":"0","num_feature":"52","num_nodes":"5","size_leaf_vector":"1"}},{"base_weights":[-4.658326E-2,7.445787E-2,-8.534933E-1,5.716526E-2,-1.865964E-1],"categories":[],"categories_nodes":[],"categories_segments":[],"categories_sizes":[],"default_left":[0,0,0,0,0],"id":9,"left_children":[1,-1,3,-1,-1],"loss_changes":[4.9031334E0,0E0,6.5143547E0,0E0,0E0],"parents":[2147483647,0,0,2,2],"right_children":[2,-1,4,-1,-1],"split_conditions":[3.2E1,7.445787E-2,2.43E2,5.716526E-2,-1.865964E-1],"split_indices":[45,0,43,0,0],"split_type":[0,0,0,0,0],"sum_hessian":[5.6849365E0,2.9094832E0,2.7754533E0,1.333632E0,1.4418213E0],"tree_param":{"num_deleted":"0","num_feature":"52","num_nodes":"5","size_leaf_vector":"1"}},{"base_weights":[-4.457899E-2,4.7275385E-1,-1.4833161E-1,7.869357E-2,-4.9867596E-2],"categories":[],"categories_nodes":[],"categories_segments":[],"categories_sizes":[],"default_left":[0,0,0,0,0],"id":10,"left_children":[1,3,-1,-1,-1],"loss_changes":[5.6860113E0,2.1272974E0,0E0,0E0,0E0],"parents":[2147483647,0,0,1,1],"right_children":[2,4,-1,-1,-1],"split_conditions":[2.92E4,2.5641025E4,-1.4833161E-1,7.869357E-2,-4.9867596E-2],"split_indices":[42,13,0,0,0],"split_type":[0,0,0,0,0],"sum_hessian":[5.697204E0,4.6842713E0,1.0129329E0,3.683021E0,1.0012499E0],"tree_param":{"num_deleted":"0","num_feature":"52","num_nodes":"5","size_leaf_vector":"1"}},{"base_weights":[-5.490065E-2,4.5075288E-1,-1.2986289E-1,7.760463E-2,-4.993092E-2],"categories":[],"categories_nodes":[],"categories_segments":[],"categories_sizes":[],"default_left":[0,0,0,0,0],"id":11,"left_children":[1,3,-1,-1,-1],"loss_changes":[4.7558784E0,2.0739725E0,0E0,0E0,0E0],"parents":[2147483647,0,0,1,1],"right_children":[2,4,-1,-1,-1],"split_conditions":[2.92E4,2.6490066E4,-1.2986289E-1,7.760463E-2,-4.993092E-2],"split_indices":[42,13,0,0,0],"split_type":[0,0,0,0,0],"sum_hessian":[5.6314955E0,4.4570174E0,1.1744777E0,3.4566512E0,1.0003663E0],"tree_param":{"num_deleted":"0","num_feature":"52","num_nodes":"5","size_leaf_vector":"1"}},{"base_weights":[-6.1974775E-2,-7.437546E-1,7.2074E-2,6.2485404E-2,-1.9801234E-1],"categories":[],"categories_nodes":[],"categories_segments":[],"categories_sizes":[],"default_left":[0,0,0,0,0],"id":12,"left_children":[1,3,-1,-1,-1],"loss_changes":[4.051151E0,8.027113E0,0E0,0E0,0E0],"parents":[2147483647,0,0,1,1],"right_children":[2,4,-1,-1,-1],"split_conditions":[8.8E1,2.43E2,7.2074E-2,6.2485404E-2,-1.9801234E-1],"split_indices":[0,43,0,0,0],"split_type":[0,0,0,0,0],"sum_hessian":[5.587029E0,3.0126505E0,2.5743785E0,1.6646061E0,1.3480444E0],"tree_param":{"num_deleted":"0","num_feature":"52","num_nodes":"5","size_leaf_vector":"1"}},{"base_weights":[-5.945911E-2,7.1250014E-2,-6.9478226E-1,-1.6371791E-1,5.9640992E-2],"categories":[],"categories_nodes":[],"categories_segments":[],"categories_sizes":[],"default_left":[0,0,0,0,0],"id":13,"left_children":[1,-1,3,-1,-1],"loss_changes":[3.7328348E0,0E0,5.9990516E0,0E0,0E0],"parents":[2147483647,0,0,2,2],"right_children":[2,-1,4,-1,-1],"split_conditions":[3.2E1,7.1250014E-2,8.8E1,-1.6371791E-1,5.9640992E-2],"split_indices":[45,0,0,0,0],"split_type":[0,0,0,0,0],"sum_hessian":[5.6017823E0,2.4741056E0,3.127677E0,1.6531444E0,1.4745327E0],"tree_param":{"num_deleted":"0","num_feature":"52","num_nodes":"5","size_leaf_vector":"1"}},{"base_weights":[-5.3355668E-2,-6.615558E-1,7.086488E-2,-1.9994219E-1,3.783045E-1,5.4775406E-2,2.8103433E-4],"categories":[],"categories_nodes":[],"categories_segments":[],"categories_sizes":[],"default_left":[0,0,0,0,0,0,0],"id":14,"left_children":[1,3,-1,-1,5,-1,-1],"loss_changes":[3.545737E0,6.6124597E0,0E0,0E0,2.026644E-1,0E0,0E0],"parents":[2147483647,0,0,1,1,4,4],"right_children":[2,4,-1,-1,6,-1,-1],"split_conditions":[4.4935406E2,3.15E2,7.086488E-2,-1.9994219E-1,2.39E2,5.4775406E-2,2.8103433E-4],"split_indices":[12,43,0,0,22,0,0],"split_type":[0,0,0,0,0,0,0],"sum_hessian":[5.639159E0,3.2093842E0,2.429775E0,1.0000098E0,2.2093744E0,1.2062665E0,1.0031078E0],"tree_param":{"num_deleted":"0","num_feature":"52","num_nodes":"7","size_leaf_vector":"1"}},{"base_weights":[-5.4878924E-2,4.179814E-1,-1.0145437E-1,-4.9708672E-2,7.59316E-2],"categories":[],"categories_nodes":[],"categories_segments":[],"categories_sizes":[],"default_left":[0,0,0,0,0],"id":15,"left_children":[1,3,-1,-1,-1],"loss_changes":[3.43238E0,1.9858024E0,0E0,0E0,0E0],"parents":[2147483647,0,0,1,1],"right_children":[2,4,-1,-1,-1],"split_conditions":[2.92E4,1.25E2,-1.0145437E-1,-4.9708672E-2,7.59316E-2],"split_indices":[42,1,0,0,0],"split_type":[0,0,0,0,0],"sum_hessian":[5.62936E0,4.149304E0,1.4800562E0,1.0033002E0,3.1460037E0],"tree_param":{"num_deleted":"0","num_feature":"52","num_nodes":"5","size_leaf_vector":"1"}},{"base_weights":[-5.8200035E-2,-7.989468E-1,5.3345907E-1,5.7166934E-2,-1.9986098E-1,6.951289E-2,4.4750536E-4],"categories":[],"categories_nodes":[],"categories_segments":[],"categories_sizes":[],"default_left":[0,0,0,0,0,0,0],"id":16,"left_children":[1,3,5,-1,-1,-1,-1],"loss_changes":[3.3222647E0,6.6256337E0,3.6234438E-1,0E0,0E0,0E0,0E0],"parents":[2147483647,0,0,1,1,2,2],"right_children":[2,4,6,-1,-1,-1,-1],"split_conditions":[2.45E2,1.06E2,8.677E3,5.7166934E-2,-1.9986098E-1,6.951289E-2,4.4750536E-4],"split_indices":[43,42,43,0,0,0,0],"split_type":[0,0,0,0,0,0,0],"sum_hessian":[5.607941E0,2.33465E0,3.2732909E0,1.3340135E0,1.0006367E0,2.2665098E0,1.0067812E0],"tree_param":{"num_deleted":"0","num_feature":"52","num_nodes":"7","size_leaf_vector":"1"}},{"base_weights":[-5.91154E-2,-6.4930785E-1,7.0297845E-2,6.018996E-2,-1.5623523E-1],"categories":[],"categories_nodes":[],"categories_segments":[],"categories_sizes":[],"default_left":[0,0,0,0,0],"id":17,"left_children":[1,3,-1,-1,-1],"loss_changes":[3.4260736E0,5.7849526E0,0E0,0E0,0E0],"parents":[2147483647,0,0,1,1],"right_children":[2,4,-1,-1,-1],"split_conditions":[8.8E1,2.43E2,7.0297845E-2,6.018996E-2,-1.5623523E-1],"split_indices":[0,43,0,0,0],"split_type":[0,0,0,0,0],"sum_hessian":[5.6023626E0,3.2406688E0,2.3616939E0,1.5109236E0,1.729745E0],"tree_param":{"num_deleted":"0","num_feature":"52","num_nodes":"5","size_leaf_vector":"1"}},{"base_weights":[-5.218037E-2,-7.8311133E-1,5.3445053E-1,-1.9913119E-1,5.7616223E-2,6.952806E-2,8.4953627E-4],"categories":[],"categories_nodes":[],"categories_segments":[],"categories_sizes":[],"default_left":[0,0,0,0,0,0,0],"id":18,"left_children":[1,3,5,-1,-1,-1,-1],"loss_changes":[3.2674904E0,6.6717844E0,3.561629E-1,0E0,0E0,0E0,0E0],"parents":[2147483647,0,0,1,1,2,2],"right_children":[2,4,6,-1,-1,-1,-1],"split_conditions":[2.45E2,1.6419872E3,6.5E1,-1.9913119E-1,5.7616223E-2,6.952806E-2,8.4953627E-4],"split_indices":[43,12,17,0,0,0,0],"split_type":[0,0,0,0,0,0,0],"sum_hessian":[5.644227E0,2.36391E0,3.2803173E0,1.0053313E0,1.3585787E0,2.265591E0,1.0147264E0],"tree_param":{"num_deleted":"0","num_feature":"52","num_nodes":"7","size_leaf_vector":"1"}},{"base_weights":[-5.341919E-2,6.949709E-2,-6.0345644E-1,-1.9895402E-1,4.0537155E-1,5.758654E-2,2.760583E-4],"categories":[],"categories_nodes":[],"categories_segments":[],"categories_sizes":[],"default_left":[0,0,0,0,0,0,0],"id":19,"left_children":[1,-1,3,-1,5,-1,-1],"loss_changes":[3.1512077E0,0E0,6.903655E0,0E0,2.2866094E-1,0E0,0E0],"parents":[2147483647,0,0,2,2,4,4],"right_children":[2,-1,4,-1,6,-1,-1],"split_conditions":[2.43E2,6.949709E-2,3.43E2,-1.9895402E-1,5.5E1,5.758654E-2,2.760583E-4],"split_indices":[43,0,43,0,17,0,0],"split_type":[0,0,0,0,0,0,0],"sum_hessian":[5.636398E0,2.2760575E0,3.3603406E0,1.006005E0,2.3543355E0,1.351632E0,1.0027035E0],"tree_param":{"num_deleted":"0","num_feature":"52","num_nodes":"7","size_leaf_vector":"1"}},{"base_weights":[-5.4552026E-2,-7.60457E-1,5.2792895E-1,-1.947432E-1,5.785143E-2,6.902029E-2,5.351667E-4],"categories":[],"categories_nodes":[],"categories_segments":[],"categories_sizes":[],"default_left":[0,0,0,0,0,0,0],"id":20,"left_children":[1,3,5,-1,-1,-1,-1],"loss_changes":[3.1268508E0,6.5405035E0,3.543223E-1,0E0,0E0,0E0,0E0],"parents":[2147483647,0,0,1,1,2,2],"right_children":[2,4,6,-1,-1,-1,-1],"split_conditions":[2.45E2,4.4935406E2,1.46E4,-1.947432E-1,5.785143E-2,6.902029E-2,5.351667E-4],"split_indices":[43,12,43,0,0,0,0],"split_type":[0,0,0,0,0,0,0],"sum_hessian":[5.6282616E0,2.4064057E0,3.2218556E0,1.0347202E0,1.3716855E0,2.2136824E0,1.0081733E0],"tree_param":{"num_deleted":"0","num_feature":"52","num_nodes":"7","size_leaf_vector":"1"}},{"base_weights":[-5.502847E-2,-5.9473443E-1,6.918951E-2,-1.3579403E-1,5.8785982E-2],"categories":[],"categories_nodes":[],"categories_segments":[],"categories_sizes":[],"default_left":[0,0,0,0,0],"id":21,"left_children":[1,3,-1,-1,-1],"loss_changes":[3.0819967E0,4.754679E0,0E0,0E0,0E0],"parents":[2147483647,0,0,1,1],"right_children":[2,4,-1,-1,-1],"split_conditions":[8.8E1,5.429052E6,6.918951E-2,-1.3579403E-1,5.8785982E-2],"split_indices":[0,1,0,0,0],"split_type":[0,0,0,0,0],"sum_hessian":[5.624599E0,3.3835185E0,2.2410805E0,1.9662777E0,1.4172406E0],"tree_param":{"num_deleted":"0","num_feature":"52","num_nodes":"5","size_leaf_vector":"1"}},{"base_weights":[-4.636164E-2,6.986692E-2,-6.020169E-1,-1.982355E-1,4.0506032E-1,5.7521023E-2,3.4192423E-4],"categories":[],"categories_nodes":[],"categories_segments":[],"categories_sizes":[],"default_left":[0,0,0,0,0,0,0],"id":22,"left_children":[1,-1,3,-1,5,-1,-1],"loss_changes":[3.1853218E0,0E0,6.867329E0,0E0,2.2714841E-1,0E0,0E0],"parents":[2147483647,0,0,2,2,4,4],"right_children":[2,-1,4,-1,6,-1,-1],"split_conditions":[2.43E2,6.986692E-2,3.07E2,-1.982355E-1,9.25E2,5.7521023E-2,3.4192423E-4],"split_indices":[43,0,43,0,22,0,0],"split_type":[0,0,0,0,0,0,0],"sum_hessian":[5.678364E0,2.3158538E0,3.3625097E0,1.0098912E0,2.3526187E0,1.348988E0,1.0036305E0],"tree_param":{"num_deleted":"0","num_feature":"52","num_nodes":"7","size_leaf_vector":"1"}},{"base_weights":[-4.8080098E-2,4.027874E-1,-8.813791E-2,7.520349E-2,-4.9883656E-2],"categories":[],"categories_nodes":[],"categories_segments":[],"categories_sizes":[],"default_left":[0,0,0,0,0],"id":23,"left_children":[1,3,-1,-1,-1],"loss_changes":[2.8591375E0,1.9531653E0,0E0,0E0,0E0],"parents":[2147483647,0,0,1,1],"right_children":[2,4,-1,-1,-1],"split_conditions":[2.92E4,2.4691357E4,-8.813791E-2,7.520349E-2,-4.9883656E-2],"split_indices":[42,13,0,0,0],"split_type":[0,0,0,0,0],"sum_hessian":[5.665105E0,4.0113473E0,1.6537576E0,3.0109534E0,1.0003936E0],"tree_param":{"num_deleted":"0","num_feature":"52","num_nodes":"5","size_leaf_vector":"1"}},{"base_weights":[-5.041052E-2,-5.510538E-1,6.8253E-2,5.7622492E-2,-1.2211684E0,-2.4613702E-1,5.3142946E-2],"categories":[],"categories_nodes":[],"categories_segments":[],"categories_sizes":[],"default_left":[0,0,0,0,0,0,0],"id":24,"left_children":[1,3,-1,-1,5,-1,-1],"loss_changes":[2.8161063E0,4.1061316E0,0E0,0E0,8.144978E0,0E0,0E0],"parents":[2147483647,0,0,1,1,4,4],"right_children":[2,4,-1,-1,6,-1,-1],"split_conditions":[8.8E1,2.43E2,6.8253E-2,5.7622492E-2,5.429052E6,-2.4613702E-1,5.3142946E-2],"split_indices":[0,43,0,0,1,0,0],"split_type":[0,0,0,0,0,0,0],"sum_hessian":[5.6495442E0,3.5041533E0,2.145391E0,1.3586751E0,2.145478E0,1.0195763E0,1.1259017E0],"tree_param":{"num_deleted":"0","num_feature":"52","num_nodes":"7","size_leaf_vector":"1"}},{"base_weights":[-4.91436E-2,-6.994622E-1,5.1768273E-1,6.0373586E-2,-1.9927827E-1,6.814891E-2,3.733528E-4],"categories":[],"categories_nodes":[],"categories_segments":[],"categories_sizes":[],"default_left":[0,0,0,0,0,0,0],"id":25,"left_children":[1,3,5,-1,-1,-1,-1],"loss_changes":[2.8143463E0,7.141685E0,3.450787E-1,0E0,0E0,0E0,0E0],"parents":[2147483647,0,0,1,1,2,2],"right_children":[2,4,6,-1,-1,-1,-1],"split_conditions":[2.45E2,3.6E1,2.4385E4,6.0373586E-2,-1.9927827E-1,6.814891E-2,3.733528E-4],"split_indices":[43,43,43,0,0,0,0],"split_type":[0,0,0,0,0,0,0],"sum_hessian":[5.6525483E0,2.5234277E0,3.1291206E0,1.5224946E0,1.0009332E0,2.1256468E0,1.0034736E0],"tree_param":{"num_deleted":"0","num_feature":"52","num_nodes":"7","size_leaf_vector":"1"}},{"base_weights":[-5.069816E-2,6.679767E-2,-5.0674963E-1,-1.0890573E0,5.6377407E-2,-1.67124E-1,5.0581503E-3],"categories":[],"categories_nodes":[],"categories_segments":[],"categories_sizes":[],"default_left":[0,0,0,0,0,0,0],"id":26,"left_children":[1,-1,3,5,-1,-1,-1],"loss_changes":[2.5141373E0,0E0,3.499991E0,2.3003385E0,0E0,0E0,0E0],"parents":[2147483647,0,0,2,2,3,3],"right_children":[2,-1,4,6,-1,-1,-1],"split_conditions":[3.2E1,6.679767E-2,8.8E1,1.2276E4,5.6377407E-2,-1.67124E-1,5.0581503E-3],"split_indices":[45,0,0,19,0,0,0],"split_type":[0,0,0,0,0,0,0],"sum_hessian":[5.638054E0,2.0083976E0,3.6296563E0,2.3396816E0,1.2899745E0,1.2398446E0,1.0998372E0],"tree_param":{"num_deleted":"0","num_feature":"52","num_nodes":"7","size_leaf_vector":"1"}},{"base_weights":[-4.7749065E-2,6.6734195E-2,-4.997389E-1,-1.907162E-1,4.4520542E-1,6.147175E-2,4.6370397E-4],"categories":[],"categories_nodes":[],"categories_segments":[],"categories_sizes":[],"default_left":[0,0,0,0,0,0,0],"id":27,"left_children":[1,-1,3,-1,5,-1,-1],"loss_changes":[2.4831672E0,0E0,7.029217E0,0E0,2.6533216E-1,0E0,0E0],"parents":[2147483647,0,0,2,2,4,4],"right_children":[2,-1,4,-1,6,-1,-1],"split_conditions":[2.43E2,6.6734195E-2,2.57E2,-1.907162E-1,1.5544E4,6.147175E-2,4.6370397E-4],"split_indices":[43,0,43,0,43,0,0],"split_type":[0,0,0,0,0,0,0],"sum_hessian":[5.650923E0,2.0039806E0,3.6469421E0,1.0559317E0,2.5910103E0,1.5856404E0,1.0053699E0],"tree_param":{"num_deleted":"0","num_feature":"52","num_nodes":"7","size_leaf_vector":"1"}},{"base_weights":[-4.8410997E-2,2.9534078E-1,-9.927052E-2,-3.621778E-2,7.320107E-2],"categories":[],"categories_nodes":[],"categories_segments":[],"categories_sizes":[],"default_left":[0,0,0,0,0],"id":28,"left_children":[1,3,-1,-1,-1],"loss_changes":[2.4477415E0,1.8835504E0,0E0,0E0,0E0],"parents":[2147483647,0,0,1,1],"right_children":[2,4,-1,-1,-1],"split_conditions":[1.644359E2,6E0,-9.927052E-2,-3.621778E-2,7.320107E-2],"split_indices":[40,33,0,0,0],"split_type":[0,0,0,0,0],"sum_hessian":[5.637512E0,4.6368093E0,1.000703E0,1.9185424E0,2.7182667E0],"tree_param":{"num_deleted":"0","num_feature":"52","num_nodes":"5","size_leaf_vector":"1"}},{"base_weights":[-5.1065873E-2,2.929989E-1,-9.915735E-2,-3.3014808E-2,7.252432E-2],"categories":[],"categories_nodes":[],"categories_segments":[],"categories_sizes":[],"default_left":[0,0,0,0,0],"id":29,"left_children":[1,3,-1,-1,-1],"loss_changes":[2.4317458E0,1.7522649E0,0E0,0E0,0E0],"parents":[2147483647,0,0,1,1],"right_children":[2,4,-1,-1,-1],"split_conditions":[1.4692209E2,6E0,-9.915735E-2,-3.3014808E-2,7.252432E-2],"split_indices":[7,33,0,0,0],"split_type":[0,0,0,0,0],"sum_hessian":[5.61695E0,4.6165504E0,1.0004E0,1.9874841E0,2.629066E0],"tree_param":{"num_deleted":"0","num_feature":"52","num_nodes":"5","size_leaf_vector":"1"}},{"base_weights":[-5.3186625E-2,2.906751E-1,-9.869604E-2,-3.0127764E-1,7.186001E-2,-4.936861E-2,3.3627145E-3],"categories":[],"categories_nodes":[],"categories_segments":[],"categories_sizes":[],"default_left":[0,0,0,0,0,0,0],"id":30,"left_children":[1,3,-1,5,-1,-1,-1],"loss_changes":[2.4058352E0,1.633935E0,0E0,2.1329561E-1,0E0,0E0,0E0],"parents":[2147483647,0,0,1,1,3,3],"right_children":[2,4,-1,6,-1,-1,-1],"split_conditions":[2.74E2,6E0,-9.869604E-2,7.9E1,7.186001E-2,-4.936861E-2,3.3627145E-3],"split_indices":[10,33,0,17,0,0,0],"split_type":[0,0,0,0,0,0,0],"sum_hessian":[5.5992613E0,4.5956316E0,1.0036298E0,2.052435E0,2.5431967E0,1.0024194E0,1.0500156E0],"tree_param":{"num_deleted":"0","num_feature":"52","num_nodes":"7","size_leaf_vector":"1"}},{"base_weights":[-5.731895E-2,2.8734377E-1,-9.881395E-2,-2.8154203E-1,7.125478E-2,-4.9089078E-2,5.358775E-3],"categories":[],"categories_nodes":[],"categories_segments":[],"categories_sizes":[],"default_left":[0,0,0,0,0,0,0],"id":31,"left_children":[1,3,-1,5,-1,-1,-1],"loss_changes":[2.3915713E0,1.5477191E0,0E0,2.4371703E-1,0E0,0E0,0E0],"parents":[2147483647,0,0,1,1,3,3],"right_children":[2,4,-1,6,-1,-1,-1],"split_conditions":[1.6680435E2,6E0,-9.881395E-2,7.4E1,7.125478E-2,-4.9089078E-2,5.358775E-3],"split_indices":[7,33,0,17,0,0,0],"split_type":[0,0,0,0,0,0,0],"sum_hessian":[5.5695443E0,4.5690312E0,1.0005128E0,2.0988371E0,2.4701943E0,1.005773E0,1.0930641E0],"tree_param":{"num_deleted":"0","num_feature":"52","num_nodes":"7","size_leaf_vector":"1"}},{"base_weights":[-6.0797554E-2,-5.006796E-1,6.576754E-2,5.722111E-2,-1.0912293E0,-2.1867399E-1,5.3572334E-2],"categories":[],"categories_nodes":[],"categories_segments":[],"categories_sizes":[],"default_left":[0,0,0,0,0,0,0],"id":32,"left_children":[1,3,-1,-1,5,-1,-1],"loss_changes":[2.39727E0,3.5556178E0,0E0,0E0,7.102913E0,0E0,0E0],"parents":[2147483647,0,0,1,1,4,4],"right_children":[2,4,-1,-1,6,-1,-1],"split_conditions":[8.8E1,8E1,6.576754E-2,5.722111E-2,1.435E3,-2.1867399E-1,5.3572334E-2],"split_indices":[0,0,0,0,22,0,0],"split_type":[0,0,0,0,0,0,0],"sum_hessian":[5.5433593E0,3.6263037E0,1.9170557E0,1.2984242E0,2.3278794E0,1.1855303E0,1.1423491E0],"tree_param":{"num_deleted":"0","num_feature":"52","num_nodes":"7","size_leaf_vector":"1"}},{"base_weights":[-5.544794E-2,-6.2552965E-1,4.909865E-1,6.1961383E-2,-1.9324641E-1,6.5663956E-2,7.954528E-4],"categories":[],"categories_nodes":[],"categories_segments":[],"categories_sizes":[],"default_left":[0,0,0,0,0,0,0],"id":33,"left_children":[1,3,5,-1,-1,-1,-1],"loss_changes":[2.351423E0,7.1395416E0,3.077175E-1,0E0,0E0,0E0,0E0],"parents":[2147483647,0,0,1,1,2,2],"right_children":[2,4,6,-1,-1,-1,-1],"split_conditions":[2.45E2,2.43E2,9.25E2,6.1961383E-2,-1.9324641E-1,6.5663956E-2,7.954528E-4],"split_indices":[43,43,22,0,0,0,0],"split_type":[0,0,0,0,0,0,0],"sum_hessian":[5.5624905E0,2.6514988E0,2.9109917E0,1.6271664E0,1.0243323E0,1.8999892E0,1.0110024E0],"tree_param":{"num_deleted":"0","num_feature":"52","num_nodes":"7","size_leaf_vector":"1"}},{"base_weights":[-5.6271117E-2,2.8514427E-1,-9.725546E-2,5.65212E-1,-4.920539E-2,7.231631E-2,6.738025E-4],"categories":[],"categories_nodes":[],"categories_segments":[],"categories_sizes":[],"default_left":[0,0,0,0,0,0,0],"id":34,"left_children":[1,3,-1,5,-1,-1,-1],"loss_changes":[2.320954E0,1.4823824E0,0E0,3.9493906E-1,0E0,0E0,0E0],"parents":[2147483647,0,0,1,1,3,3],"right_children":[2,4,-1,6,-1,-1,-1],"split_conditions":[8.8319145E1,1.2048192E4,-9.725546E-2,9.72E2,-4.920539E-2,7.231631E-2,6.738025E-4],"split_indices":[6,30,0,43,0,0,0],"split_type":[0,0,0,0,0,0,0],"sum_hessian":[5.532666E0,4.532587E0,1.000079E0,3.5324175E0,1.0001696E0,2.523745E0,1.0086726E0],"tree_param":{"num_deleted":"0","num_feature":"52","num_nodes":"7","size_leaf_vector":"1"}},{"base_weights":[-6.0399134E-2,2.794778E-1,-9.596946E-2,-4.9105756E-2,5.604979E-1,7.2023116E-2,1.681246E-4],"categories":[],"categories_nodes":[],"categories_segments":[],"categories_sizes":[],"default_left":[0,0,0,0,0,0,0],"id":35,"left_children":[1,3,-1,-1,5,-1,-1],"loss_changes":[2.2547653E0,1.4642903E0,0E0,0E0,3.9963973E-1,0E0,0E0],"parents":[2147483647,0,0,1,1,4,4],"right_children":[2,4,-1,-1,6,-1,-1],"split_conditions":[9.5875E1,1.09E2,-9.596946E-2,-4.9105756E-2,3.7996185E6,7.2023116E-2,1.681246E-4],"split_indices":[6,1,0,0,20,0,0],"split_type":[0,0,0,0,0,0,0],"sum_hessian":[5.4994383E0,4.4912534E0,1.0081846E0,1.0005131E0,3.4907405E0,2.4901114E0,1.0006291E0],"tree_param":{"num_deleted":"0","num_feature":"52","num_nodes":"7","size_leaf_vector":"1"}},{"base_weights":[-6.407694E-2,2.7442268E-1,-9.495752E-2,-2.7555674E-1,7.0231326E-2,-4.8099447E-2,5.121461E-3],"categories":[],"categories_nodes":[],"categories_segments":[],"categories_sizes":[],"default_left":[0,0,0,0,0,0,0],"id":36,"left_children":[1,3,-1,5,-1,-1,-1],"loss_changes":[2.1991882E0,1.477203E0,0E0,2.3308103E-1,0E0,0E0,0E0],"parents":[2147483647,0,0,1,1,3,3],"right_children":[2,4,-1,6,-1,-1,-1],"split_conditions":[1.0672727E2,6E0,-9.495752E-2,2.53E2,7.0231326E-2,-4.8099447E-2,5.121461E-3],"split_indices":[6,33,0,43,0,0,0],"split_type":[0,0,0,0,0,0,0],"sum_hessian":[5.467599E0,4.4547663E0,1.0128323E0,2.1050715E0,2.3496947E0,1.0027149E0,1.1023568E0],"tree_param":{"num_deleted":"0","num_feature":"52","num_nodes":"7","size_leaf_vector":"1"}},{"base_weights":[-6.6719085E-2,-5.9620017E-1,4.6975887E-1,5.8991313E-2,-1.618971E-1,6.385016E-2,2.79735E-4],"categories":[],"categories_nodes":[],"categories_segments":[],"categories_sizes":[],"default_left":[0,0,0,0,0,0,0],"id":37,"left_children":[1,3,5,-1,-1,-1,-1],"loss_changes":[2.1084518E0,5.419555E0,2.9421556E-1,0E0,0E0,0E0,0E0],"parents":[2147483647,0,0,1,1,2,2],"right_children":[2,4,6,-1,-1,-1,-1],"split_conditions":[2.45E2,2.43E2,8.19E3,5.8991313E-2,-1.618971E-1,6.385016E-2,2.79735E-4],"split_indices":[43,43,43,0,0,0,0],"split_type":[0,0,0,0,0,0,0],"sum_hessian":[5.436719E0,2.6801758E0,2.756543E0,1.4369532E0,1.2432226E0,1.754998E0,1.0015451E0],"tree_param":{"num_deleted":"0","num_feature":"52","num_nodes":"7","size_leaf_vector":"1"}},{"base_weights":[-6.3202776E-2,2.7215594E-1,-9.378311E-2,5.540188E-1,-4.8577137E-2,7.1472146E-2,3.9003923E-4],"categories":[],"categories_nodes":[],"categories_segments":[],"categories_sizes":[],"default_left":[0,0,0,0,0,0,0],"id":38,"left_children":[1,3,-1,5,-1,-1,-1],"loss_changes":[2.1386712E0,1.4262824E0,0E0,3.875637E-1,0E0,0E0,0E0],"parents":[2147483647,0,0,1,1,3,3],"right_children":[2,4,-1,6,-1,-1,-1],"split_conditions":[9.37E2,1.010101E4,-9.378311E-2,2.39E2,-4.8577137E-2,7.1472146E-2,3.9003923E-4],"split_indices":[27,31,0,22,0,0,0],"split_type":[0,0,0,0,0,0,0],"sum_hessian":[5.4212193E0,4.4165964E0,1.0046229E0,3.4154656E0,1.0011308E0,2.4117284E0,1.0037372E0],"tree_param":{"num_deleted":"0","num_feature":"52","num_nodes":"7","size_leaf_vector":"1"}},{"base_weights":[-6.653226E-2,2.6255715E-1,-8.97299E-2,-4.831199E-2,5.459765E-1,7.082088E-2,2.6779584E-4],"categories":[],"categories_nodes":[],"categories_segments":[],"categories_sizes":[],"default_left":[0,0,0,0,0,0,0],"id":39,"left_children":[1,3,-1,-1,5,-1,-1],"loss_changes":[1.9811318E0,1.3937484E0,0E0,0E0,3.8095737E-1,0E0,0E0],"parents":[2147483647,0,0,1,1,4,4],"right_children":[2,4,-1,-1,6,-1,-1],"split_conditions":[1.165E2,8.3E1,-8.97299E-2,-4.831199E-2,3.7996185E6,7.082088E-2,2.6779584E-4],"split_indices":[6,16,0,0,20,0,0],"split_type":[0,0,0,0,0,0,0],"sum_hessian":[5.3846436E0,4.3467393E0,1.0379041E0,1.0030642E0,3.3436754E0,2.3410792E0,1.002596E0],"tree_param":{"num_deleted":"0","num_feature":"52","num_nodes":"7","size_leaf_vector":"1"}},{"base_weights":[-6.9146454E-2,-4.4490635E-1,6.232786E-2,-9.0625775E-1,5.3334713E-2,5.132422E-2,-1.6738068E-1],"categories":[],"categories_nodes":[],"categories_segments":[],"categories_sizes":[],"default_left":[0,0,0,0,0,0,0],"id":40,"left_children":[1,3,-1,5,-1,-1,-1],"loss_changes":[1.9296772E0,2.6046474E0,0E0,4.742629E0,0E0,0E0,0E0],"parents":[2147483647,0,0,1,1,3,3],"right_children":[2,4,-1,6,-1,-1,-1],"split_conditions":[8.8E1,5.429052E6,6.232786E-2,8E1,5.3334713E-2,5.132422E-2,-1.6738068E-1],"split_indices":[0,1,0,0,0,0,0],"split_type":[0,0,0,0,0,0,0],"sum_hessian":[5.3507624E0,3.700221E0,1.6505411E0,2.5644188E0,1.1358023E0,1.0162661E0,1.5481528E0],"tree_param":{"num_deleted":"0","num_feature":"52","num_nodes":"7","size_leaf_vector":"1"}},{"base_weights":[-5.8342207E-2,-5.452594E-1,4.5393172E-1,5.5998314E-2,-1.3485709E-1,6.223407E-2,6.487942E-4],"categories":[],"categories_nodes":[],"categories_segments":[],"categories_sizes":[],"default_left":[0,0,0,0,0,0,0],"id":41,"left_children":[1,3,5,-1,-1,-1,-1],"loss_changes":[1.8351535E0,4.0558095E0,2.7080798E-1,0E0,0E0,0E0,0E0],"parents":[2147483647,0,0,1,1,2,2],"right_children":[2,4,6,-1,-1,-1,-1],"split_conditions":[2.45E2,2.43E2,5.37E2,5.5998314E-2,-1.3485709E-1,6.223407E-2,6.487942E-4],"split_indices":[43,43,22,0,0,0,0],"split_type":[0,0,0,0,0,0,0],"sum_hessian":[5.364957E0,2.7175403E0,2.6474166E0,1.2713077E0,1.4462326E0,1.6394718E0,1.007945E0],"tree_param":{"num_deleted":"0","num_feature":"52","num_nodes":"7","size_leaf_vector":"1"}},{"base_weights":[-5.286998E-2,-4.984542E-1,4.3856123E-1,5.4613274E-2,-1.19347535E-1,6.0929563E-2,1.9591402E-4],"categories":[],"categories_nodes":[],"categories_segments":[],"categories_sizes":[],"default_left":[0,0,0,0,0,0,0],"id":42,"left_children":[1,3,5,-1,-1,-1,-1],"loss_changes":[1.6075321E0,3.4067605E0,2.6330227E-1,0E0,0E0,0E0,0E0],"parents":[2147483647,0,0,1,1,2,2],"right_children":[2,4,6,-1,-1,-1,-1],"split_conditions":[2.45E2,2.43E2,3.0870478E6,5.4613274E-2,-1.19347535E-1,6.0929563E-2,1.9591402E-4],"split_indices":[43,43,15,0,0,0,0],"split_type":[0,0,0,0,0,0,0],"sum_hessian":[5.342897E0,2.7946641E0,2.548233E0,1.2021323E0,1.5925318E0,1.5475283E0,1.0007046E0],"tree_param":{"num_deleted":"0","num_feature":"52","num_nodes":"7","size_leaf_vector":"1"}},{"base_weights":[-4.6300106E-2,-3.471686E-1,5.8591016E-2,5.3942908E-2,-7.4834037E-1,-1.3957085E-1,5.0846037E-2],"categories":[],"categories_nodes":[],"categories_segments":[],"categories_sizes":[],"default_left":[0,0,0,0,0,0,0],"id":43,"left_children":[1,3,-1,-1,5,-1,-1],"loss_changes":[1.4065067E0,2.1512907E0,0E0,0E0,3.8027668E0,0E0,0E0],"parents":[2147483647,0,0,1,1,4,4],"right_children":[2,4,-1,-1,6,-1,-1],"split_conditions":[8.8E1,8E1,5.8591016E-2,5.3942908E-2,1.435E3,-1.3957085E-1,5.0846037E-2],"split_indices":[0,0,0,0,22,0,0],"split_type":[0,0,0,0,0,0,0],"sum_hessian":[5.3250275E0,3.9134731E0,1.4115542E0,1.111781E0,2.801692E0,1.77624E0,1.0254519E0],"tree_param":{"num_deleted":"0","num_feature":"52","num_nodes":"7","size_leaf_vector":"1"}},{"base_weights":[-3.5109796E-2,-3.328755E-1,5.86424E-2,2.5030985E-1,-1.2672947E-1,6.594345E-2,-4.5916382E-2],"categories":[],"categories_nodes":[],"categories_segments":[],"categories_sizes":[],"default_left":[0,0,0,0,0,0,0],"id":44,"left_children":[1,3,-1,5,-1,-1,-1],"loss_changes":[1.3654693E0,2.9945364E0,0E0,1.4232419E0,0E0,0E0,0E0],"parents":[2147483647,0,0,1,1,3,3],"right_children":[2,4,-1,6,-1,-1,-1],"split_conditions":[5.429052E6,4.949602E6,5.86424E-2,1.0526315E4,-1.2672947E-1,6.594345E-2,-4.5916382E-2],"split_indices":[1,16,0,31,0,0,0],"split_type":[0,0,0,0,0,0,0],"sum_hessian":[5.323305E0,3.9130583E0,1.410247E0,2.86013E0,1.0529282E0,1.8587782E0,1.0013518E0],"tree_param":{"num_deleted":"0","num_feature":"52","num_nodes":"7","size_leaf_vector":"1"}},{"base_weights":[-3.7757434E-2,-4.405166E-1,4.2003092E-1,5.1654756E-2,-1.0013311E-1,5.9013296E-2,3.8469685E-4],"categories":[],"categories_nodes":[],"categories_segments":[],"categories_sizes":[],"default_left":[0,0,0,0,0,0,0],"id":45,"left_children":[1,3,5,-1,-1,-1,-1],"loss_changes":[1.3364806E0,2.562353E0,2.4088818E-1,0E0,0E0,0E0,0E0],"parents":[2147483647,0,0,1,1,2,2],"right_children":[2,4,6,-1,-1,-1,-1],"split_conditions":[2.45E2,2.43E2,5.9E1,5.1654756E-2,-1.0013311E-1,5.9013296E-2,3.8469685E-4],"split_indices":[43,43,17,0,0,0,0],"split_type":[0,0,0,0,0,0,0],"sum_hessian":[5.2450356E0,2.8102899E0,2.4347458E0,1.0674886E0,1.7428013E0,1.4316446E0,1.0031012E0],"tree_param":{"num_deleted":"0","num_feature":"52","num_nodes":"7","size_leaf_vector":"1"}},{"base_weights":[-3.090201E-2,-4.0177682E-1,4.057256E-1,5.221649E-2,-9.257747E-2,5.7573028E-2,3.6571894E-4],"categories":[],"categories_nodes":[],"categories_segments":[],"categories_sizes":[],"default_left":[0,0,0,0,0,0,0],"id":46,"left_children":[1,3,5,-1,-1,-1,-1],"loss_changes":[1.1696701E0,2.354029E0,2.2706288E-1,0E0,0E0,0E0,0E0],"parents":[2147483647,0,0,1,1,2,2],"right_children":[2,4,6,-1,-1,-1,-1],"split_conditions":[2.45E2,8E1,5.9E1,5.221649E-2,-9.257747E-2,5.7573028E-2,3.6571894E-4],"split_indices":[43,0,17,0,0,0,0],"split_type":[0,0,0,0,0,0,0],"sum_hessian":[5.2164702E0,2.8637755E0,2.3526947E0,1.0376436E0,1.8261318E0,1.3499715E0,1.0027232E0],"tree_param":{"num_deleted":"0","num_feature":"52","num_nodes":"7","size_leaf_vector":"1"}},{"base_weights":[-2.3694383E-2,-2.895684E-1,5.6133818E-2,-6.353286E-1,5.1823165E-2,-1.2757769E-1,2.1279594E-2],"categories":[],"categories_nodes":[],"categories_segments":[],"categories_sizes":[],"default_left":[0,0,0,0,0,0,0],"id":47,"left_children":[1,3,-1,5,-1,-1,-1],"loss_changes":[1.1262445E0,1.7032716E0,0E0,2.3867123E0,0E0,0E0,0E0],"parents":[2147483647,0,0,1,1,3,3],"right_children":[2,4,-1,6,-1,-1,-1],"split_conditions":[8.8E1,1.34E2,5.6133818E-2,1.2276E4,5.1823165E-2,-1.2757769E-1,2.1279594E-2],"split_indices":[0,17,0,19,0,0,0],"split_type":[0,0,0,0,0,0,0],"sum_hessian":[5.195628E0,3.9194386E0,1.2761897E0,2.8941653E0,1.0252732E0,1.3616802E0,1.5324851E0],"tree_param":{"num_deleted":"0","num_feature":"52","num_nodes":"7","size_leaf_vector":"1"}},{"base_weights":[-1.9992724E-2,5.5227526E-2,-2.7683437E-1,-6.4199233E-1,5.284368E-2,-1.14564836E-1,1.5439289E-2],"categories":[],"categories_nodes":[],"categories_segments":[],"categories_sizes":[],"default_left":[0,0,0,0,0,0,0],"id":48,"left_children":[1,-1,3,5,-1,-1,-1],"loss_changes":[1.0521953E0,0E0,1.7769263E0,1.7072225E0,0E0,0E0,0E0],"parents":[2147483647,0,0,2,2,3,3],"right_children":[2,-1,4,6,-1,-1,-1],"split_conditions":[1.9E1,5.5227526E-2,1.34E2,2.45E2,5.284368E-2,-1.14564836E-1,1.5439289E-2],"split_indices":[17,0,17,43,0,0,0],"split_type":[0,0,0,0,0,0,0],"sum_hessian":[5.11847E0,1.2292737E0,3.8891966E0,2.8153234E0,1.073873E0,1.4559683E0,1.3593552E0],"tree_param":{"num_deleted":"0","num_feature":"52","num_nodes":"7","size_leaf_vector":"1"}},{"base_weights":[-1.5532908E-2,-2.6641E-1,5.4562625E-2,2.3858495E-1,-1.009494E-1,-4.1641302E-2,6.366216E-2],"categories":[],"categories_nodes":[],"categories_segments":[],"categories_sizes":[],"default_left":[0,0,0,0,0,0,0],"id":49,"left_children":[1,3,-1,5,-1,-1,-1],"loss_changes":[9.965224E-1,2.0608284E0,0E0,1.2288079E0,0E0,0E0,0E0],"parents":[2147483647,0,0,1,1,3,3],"right_children":[2,4,-1,6,-1,-1,-1],"split_conditions":[5.429052E6,4.949602E6,5.4562625E-2,7.4E1,-1.009494E-1,-4.1641302E-2,6.366216E-2],"split_indices":[1,16,0,1,0,0,0],"split_type":[0,0,0,0,0,0,0],"sum_hessian":[5.0459604E0,3.8499959E0,1.1959647E0,2.6964395E0,1.1535565E0,1.0017763E0,1.694663E0],"tree_param":{"num_deleted":"0","num_feature":"52","num_nodes":"7","size_leaf_vector":"1"}},{"base_weights":[-1.693528E-2,-2.6662132E-1,5.405733E-2,-5.855394E-2,2.2999695E-2],"categories":[],"categories_nodes":[],"categories_segments":[],"categories_sizes":[],"default_left":[0,0,0,0,0],"id":50,"left_children":[1,3,-1,-1,-1],"loss_changes":[9.73428E-1,8.924284E-1,0E0,0E0,0E0],"parents":[2147483647,0,0,1,1],"right_children":[2,4,-1,-1,-1],"split_conditions":[8.8E1,1.2276E4,5.405733E-2,-5.855394E-2,2.2999695E-2],"split_indices":[0,19,0,0,0],"split_type":[0,0,0,0,0],"sum_hessian":[4.9575224E0,3.7844014E0,1.173121E0,2.1954653E0,1.588936E0],"tree_param":{"num_deleted":"0","num_feature":"52","num_nodes":"5","size_leaf_vector":"1"}},{"base_weights":[-1.1510429E-2,-2.4518497E-1,5.2710194E-2,-5.331472E-1,2.190752E-2,-8.315244E-2,6.4147906E-3],"categories":[],"categories_nodes":[],"categories_segments":[],"categories_sizes":[],"default_left":[0,0,0,0,0,0,0],"id":51,"left_children":[1,3,-1,5,-1,-1,-1],"loss_changes":[8.7550986E-1,7.608912E-1,0E0,6.351774E-1,0E0,0E0,0E0],"parents":[2147483647,0,0,1,1,3,3],"right_children":[2,4,-1,6,-1,-1,-1],"split_conditions":[8.8E1,1.2276E4,5.2710194E-2,5.4E1,2.190752E-2,-8.315244E-2,6.4147906E-3],"split_indices":[0,19,0,17,0,0,0],"split_type":[0,0,0,0,0,0,0],"sum_hessian":[4.9293847E0,3.8178234E0,1.1115614E0,2.2647243E0,1.5530993E0,1.2487595E0,1.0159646E0],"tree_param":{"num_deleted":"0","num_feature":"52","num_nodes":"7","size_leaf_vector":"1"}},{"base_weights":[-1.0289373E-2,5.2161206E-2,-2.4061859E-1,1.6628675E-1,-6.98351E-2,-3.9599463E-2,5.7800956E-2],"categories":[],"categories_nodes":[],"categories_segments":[],"categories_sizes":[],"default_left":[0,0,0,0,0,0,0],"id":52,"left_children":[1,-1,3,5,-1,-1,-1],"loss_changes":[8.4372234E-1,0E0,1.0055277E0,1.001103E0,0E0,0E0,0E0],"parents":[2147483647,0,0,2,2,3,3],"right_children":[2,-1,4,6,-1,-1,-1],"split_conditions":[1.9E1,5.2161206E-2,2.92E4,1.49E2,-6.98351E-2,-3.9599463E-2,5.7800956E-2],"split_indices":[17,0,42,1,0,0,0],"split_type":[0,0,0,0,0,0,0],"sum_hessian":[4.8623667E0,1.0871543E0,3.7752125E0,2.3356402E0,1.4395723E0,1.00345E0,1.3321903E0],"tree_param":{"num_deleted":"0","num_feature":"52","num_nodes":"7","size_leaf_vector":"1"}},{"base_weights":[-8.275021E-3,-2.3317552E-1,5.1494826E-2,2.246649E-1,-8.774432E-2,-3.9425503E-2,6.18657E-2],"categories":[],"categories_nodes":[],"categories_segments":[],"categories_sizes":[],"default_left":[0,0,0,0,0,0,0],"id":53,"left_children":[1,3,-1,5,-1,-1,-1],"loss_changes":[8.0352616E-1,1.5983539E0,0E0,1.1152089E0,0E0,0E0,0E0],"parents":[2147483647,0,0,1,1,3,3],"right_children":[2,4,-1,6,-1,-1,-1],"split_conditions":[5.429052E6,4.949602E6,5.1494826E-2,7.1E1,-8.774432E-2,-3.9425503E-2,6.18657E-2],"split_indices":[1,16,0,16,0,0,0],"split_type":[0,0,0,0,0,0,0],"sum_hessian":[4.80806E0,3.7503643E0,1.0576957E0,2.5731063E0,1.1772581E0,1.0006008E0,1.5725054E0],"tree_param":{"num_deleted":"0","num_feature":"52","num_nodes":"7","size_leaf_vector":"1"}},{"base_weights":[-8.880145E-3,-2.3270564E-1,5.099971E-2,-4.9929556E-2,2.0128911E-2],"categories":[],"categories_nodes":[],"categories_segments":[],"categories_sizes":[],"default_left":[0,0,0,0,0],"id":54,"left_children":[1,3,-1,-1,-1],"loss_changes":[7.832992E-1,6.4251995E-1,0E0,0E0,0E0],"parents":[2147483647,0,0,1,1],"right_children":[2,4,-1,-1,-1],"split_conditions":[8.8E1,1.2276E4,5.099971E-2,-4.9929556E-2,2.0128911E-2],"split_indices":[0,19,0,0,0],"split_type":[0,0,0,0,0],"sum_hessian":[4.7226777E0,3.6847332E0,1.0379443E0,2.1893914E0,1.4953418E0],"tree_param":{"num_deleted":"0","num_feature":"52","num_nodes":"5","size_leaf_vector":"1"}},{"base_weights":[-3.813172E-3,2.7732193E-1,-3.713357E-2,6.489308E-2,-3.809172E-2],"categories":[],"categories_nodes":[],"categories_segments":[],"categories_sizes":[],"default_left":[0,0,0,0,0],"id":55,"left_children":[1,3,-1,-1,-1],"loss_changes":[6.912238E-1,1.1762549E0,0E0,0E0,0E0],"parents":[2147483647,0,0,1,1],"right_children":[2,4,-1,-1,-1],"split_conditions":[2.92E4,1.2269938E4,-3.713357E-2,6.489308E-2,-3.809172E-2],"split_indices":[42,31,0,0,0],"split_type":[0,0,0,0,0],"sum_hessian":[4.6932297E0,2.7981913E0,1.8950382E0,1.7975346E0,1.0006567E0],"tree_param":{"num_deleted":"0","num_feature":"52","num_nodes":"5","size_leaf_vector":"1"}},{"base_weights":[-4.429155E-3,2.635892E-1,-3.4218244E-2,6.3704066E-2,-3.738853E-2],"categories":[],"categories_nodes":[],"categories_segments":[],"categories_sizes":[],"default_left":[0,0,0,0,0],"id":56,"left_children":[1,3,-1,-1,-1],"loss_changes":[6.0144556E-1,1.1223034E0,0E0,0E0,0E0],"parents":[2147483647,0,0,1,1],"right_children":[2,4,-1,-1,-1],"split_conditions":[2.92E4,1.2903226E4,-3.4218244E-2,6.3704066E-2,-3.738853E-2],"split_indices":[42,31,0,0,0],"split_type":[0,0,0,0,0],"sum_hessian":[4.6476684E0,2.7137773E0,1.9338913E0,1.7116959E0,1.0020813E0],"tree_param":{"num_deleted":"0","num_feature":"52","num_nodes":"5","size_leaf_vector":"1"}},{"base_weights":[-4.623154E-3,-2.2420675E-1,5.0181754E-2,-4.7569927E-2,1.8899659E-2],"categories":[],"categories_nodes":[],"categories_segments":[],"categories_sizes":[],"default_left":[0,0,0,0,0],"id":57,"left_children":[1,3,-1,-1,-1],"loss_changes":[7.3596394E-1,5.681205E-1,0E0,0E0,0E0],"parents":[2147483647,0,0,1,1],"right_children":[2,4,-1,-1,-1],"split_conditions":[8.8E1,1.2276E4,5.0181754E-2,-4.7569927E-2,1.8899659E-2],"split_indices":[0,19,0,0,0],"split_type":[0,0,0,0,0],"sum_hessian":[4.6062856E0,3.601869E0,1.0044166E0,2.1450539E0,1.4568154E0],"tree_param":{"num_deleted":"0","num_feature":"52","num_nodes":"5","size_leaf_vector":"1"}},{"base_weights":[1.3081597E-4,2.5583494E-1,-3.166356E-2,6.26077E-2,-3.583944E-2],"categories":[],"categories_nodes":[],"categories_segments":[],"categories_sizes":[],"default_left":[0,0,0,0,0],"id":58,"left_children":[1,3,-1,-1,-1],"loss_changes":[5.32532E-1,1.0516337E0,0E0,0E0,0E0],"parents":[2147483647,0,0,1,1],"right_children":[2,4,-1,-1,-1],"split_conditions":[2.92E4,1.30718955E4,-3.166356E-2,6.26077E-2,-3.583944E-2],"split_indices":[42,31,0,0,0],"split_type":[0,0,0,0,0],"sum_hessian":[4.5744953E0,2.637652E0,1.9368436E0,1.6336435E0,1.0040083E0],"tree_param":{"num_deleted":"0","num_feature":"52","num_nodes":"5","size_leaf_vector":"1"}},{"base_weights":[-4.8502527E-5,-2.5521347E-1,3.1675853E-2,-2.9843978E-3,-4.226248E-2],"categories":[],"categories_nodes":[],"categories_segments":[],"categories_sizes":[],"default_left":[0,0,0,0,0],"id":59,"left_children":[1,3,-1,-1,-1],"loss_changes":[5.282264E-1,1.23937145E-1,0E0,0E0,0E0],"parents":[2147483647,0,0,1,1],"right_children":[2,4,-1,-1,-1],"split_conditions":[2.45E2,2.6767375E4,3.1675853E-2,-2.9843978E-3,-4.226248E-2],"split_indices":[43,24,0,0,0],"split_type":[0,0,0,0,0],"sum_hessian":[4.534341E0,2.6191924E0,1.9151487E0,1.618556E0,1.0006363E0],"tree_param":{"num_deleted":"0","num_feature":"52","num_nodes":"5","size_leaf_vector":"1"}},{"base_weights":[-2.3212775E-3,-2.4157004E-1,3.0242382E-2,-2.5699474E-3,-4.0443182E-2],"categories":[],"categories_nodes":[],"categories_segments":[],"categories_sizes":[],"default_left":[0,0,0,0,0],"id":60,"left_children":[1,3,-1,-1,-1],"loss_changes":[4.7289896E-1,1.1715974E-1,0E0,0E0,0E0],"parents":[2147483647,0,0,1,1],"right_children":[2,4,-1,-1,-1],"split_conditions":[2.45E2,3.0178634E5,3.0242382E-2,-2.5699474E-3,-4.0443182E-2],"split_indices":[43,14,0,0,0],"split_type":[0,0,0,0,0],"sum_hessian":[4.484063E0,2.628102E0,1.8559612E0,1.6280063E0,1.0000957E0],"tree_param":{"num_deleted":"0","num_feature":"52","num_nodes":"5","size_leaf_vector":"1"}},{"base_weights":[-4.297954E-3,2.3571791E-1,-2.9332692E-2,6.0920794E-2,-3.53333E-2],"categories":[],"categories_nodes":[],"categories_segments":[],"categories_sizes":[],"default_left":[0,0,0,0,0],"id":61,"left_children":[1,3,-1,-1,-1],"loss_changes":[4.463259E-1,9.907437E-1,0E0,0E0,0E0],"parents":[2147483647,0,0,1,1],"right_children":[2,4,-1,-1,-1],"split_conditions":[2.92E4,1.3245033E4,-2.9332692E-2,6.0920794E-2,-3.53333E-2],"split_indices":[42,31,0,0,0],"split_type":[0,0,0,0,0],"sum_hessian":[4.4371514E0,2.524883E0,1.9122683E0,1.5242236E0,1.0006595E0],"tree_param":{"num_deleted":"0","num_feature":"52","num_nodes":"5","size_leaf_vector":"1"}},{"base_weights":[-3.920554E-3,-2.3319578E-1,2.9070912E-2,-3.4948052E-3,-3.735709E-2],"categories":[],"categories_nodes":[],"categories_segments":[],"categories_sizes":[],"default_left":[0,0,0,0,0],"id":62,"left_children":[1,3,-1,-1,-1],"loss_changes":[4.3266732E-1,8.692071E-2,0E0,0E0,0E0],"parents":[2147483647,0,0,1,1],"right_children":[2,4,-1,-1,-1],"split_conditions":[2.45E2,1.65E2,2.9070912E-2,-3.4948052E-3,-3.735709E-2],"split_indices":[43,10,0,0,0],"split_type":[0,0,0,0,0],"sum_hessian":[4.4014544E0,2.592518E0,1.8089365E0,1.5924742E0,1.000044E0],"tree_param":{"num_deleted":"0","num_feature":"52","num_nodes":"5","size_leaf_vector":"1"}},{"base_weights":[-5.6045335E-3,-2.207172E-1,2.7733311E-2,-3.1184938E-3,-3.5677377E-2],"categories":[],"categories_nodes":[],"categories_segments":[],"categories_sizes":[],"default_left":[0,0,0,0,0],"id":63,"left_children":[1,3,-1,-1,-1],"loss_changes":[3.873471E-1,8.173168E-2,0E0,0E0,0E0],"parents":[2147483647,0,0,1,1],"right_children":[2,4,-1,-1,-1],"split_conditions":[2.45E2,4.8E1,2.7733311E-2,-3.1184938E-3,-3.5677377E-2],"split_indices":[43,27,0,0,0],"split_type":[0,0,0,0,0],"sum_hessian":[4.3584676E0,2.600932E0,1.7575356E0,1.6005319E0,1.0004E0],"tree_param":{"num_deleted":"0","num_feature":"52","num_nodes":"5","size_leaf_vector":"1"}},{"base_weights":[-7.015643E-3,2.183284E-1,-2.7191738E-2,5.9249546E-2,-3.4313004E-2],"categories":[],"categories_nodes":[],"categories_segments":[],"categories_sizes":[],"default_left":[0,0,0,0,0],"id":64,"left_children":[1,3,-1,-1,-1],"loss_changes":[3.7685648E-1,9.235676E-1,0E0,0E0,0E0],"parents":[2147483647,0,0,1,1],"right_children":[2,4,-1,-1,-1],"split_conditions":[2.92E4,1.3245033E4,-2.7191738E-2,5.9249546E-2,-3.4313004E-2],"split_indices":[42,31,0,0,0],"split_type":[0,0,0,0,0],"sum_hessian":[4.3186088E0,2.4285376E0,1.8900712E0,1.424166E0,1.0043716E0],"tree_param":{"num_deleted":"0","num_feature":"52","num_nodes":"5","size_leaf_vector":"1"}},{"base_weights":[-6.1760684E-3,-2.1256585E-1,2.6698176E-2,-3.2938678E-2,-3.7598074E-3],"categories":[],"categories_nodes":[],"categories_segments":[],"categories_sizes":[],"default_left":[0,0,0,0,0],"id":65,"left_children":[1,3,-1,-1,-1],"loss_changes":[3.5481477E-1,6.0550928E-2,0E0,0E0,0E0],"parents":[2147483647,0,0,1,1],"right_children":[2,4,-1,-1,-1],"split_conditions":[2.45E2,1.73E2,2.6698176E-2,-3.2938678E-2,-3.7598074E-3],"split_indices":[43,1,0,0,0],"split_type":[0,0,0,0,0],"sum_hessian":[4.2869725E0,2.568279E0,1.7186935E0,1.0108243E0,1.5574547E0],"tree_param":{"num_deleted":"0","num_feature":"52","num_nodes":"5","size_leaf_vector":"1"}},{"base_weights":[-7.3087253E-3,2.1203297E-1,-2.6002845E-2,5.8258772E-2,-3.326821E-2],"categories":[],"categories_nodes":[],"categories_segments":[],"categories_sizes":[],"default_left":[0,0,0,0,0],"id":66,"left_children":[1,3,-1,-1,-1],"loss_changes":[3.469753E-1,8.7391675E-1,0E0,0E0,0E0],"parents":[2147483647,0,0,1,1],"right_children":[2,4,-1,-1,-1],"split_conditions":[2.92E4,1.3793104E4,-2.6002845E-2,5.8258772E-2,-3.326821E-2],"split_indices":[42,31,0,0,0],"split_type":[0,0,0,0,0],"sum_hessian":[4.264844E0,2.3693888E0,1.8954554E0,1.3687428E0,1.0006459E0],"tree_param":{"num_deleted":"0","num_feature":"52","num_nodes":"5","size_leaf_vector":"1"}},{"base_weights":[-6.2377346E-3,-2.0347829E-1,2.5721196E-2,-3.5926742E-3,-3.155036E-2],"categories":[],"categories_nodes":[],"categories_segments":[],"categories_sizes":[],"default_left":[0,0,0,0,0],"id":67,"left_children":[1,3,-1,-1,-1],"loss_changes":[3.2436523E-1,5.5336475E-2,0E0,0E0,0E0],"parents":[2147483647,0,0,1,1],"right_children":[2,4,-1,-1,-1],"split_conditions":[2.45E2,1.6E2,2.5721196E-2,-3.5926742E-3,-3.155036E-2],"split_indices":[43,28,0,0,0],"split_type":[0,0,0,0,0],"sum_hessian":[4.23504E0,2.5520215E0,1.6830187E0,1.5517846E0,1.000237E0],"tree_param":{"num_deleted":"0","num_feature":"52","num_nodes":"5","size_leaf_vector":"1"}},{"base_weights":[-7.3656114E-3,-3.2459017E-2,1.4574161E-1,5.720331E-2,-2.4510365E-2],"categories":[],"categories_nodes":[],"categories_segments":[],"categories_sizes":[],"default_left":[0,0,0,0,0],"id":68,"left_children":[1,-1,3,-1,-1],"loss_changes":[2.998742E-1,0E0,8.395652E-1,0E0,0E0],"parents":[2147483647,0,0,2,2],"right_children":[2,-1,4,-1,-1],"split_conditions":[2.54E2,-3.2459017E-2,4.949602E6,5.720331E-2,-2.4510365E-2],"split_indices":[42,0,16,0,0],"split_type":[0,0,0,0,0],"sum_hessian":[4.2001486E0,1.0026754E0,3.197473E0,1.3076504E0,1.8898226E0],"tree_param":{"num_deleted":"0","num_feature":"52","num_nodes":"5","size_leaf_vector":"1"}},{"base_weights":[-6.08123E-3,-2.394283E-2,2.0580573E-1,5.5458445E-2,-2.8636953E-2],"categories":[],"categories_nodes":[],"categories_segments":[],"categories_sizes":[],"default_left":[0,0,0,0,0],"id":69,"left_children":[1,-1,3,-1,-1],"loss_changes":[3.0504298E-1,0E0,7.165232E-1,0E0,0E0],"parents":[2147483647,0,0,2,2],"right_children":[2,-1,4,-1,-1],"split_conditions":[6E0,-2.394283E-2,7.15E2,5.5458445E-2,-2.8636953E-2],"split_indices":[33,0,27,0,0],"split_type":[0,0,0,0,0],"sum_hessian":[4.1729507E0,1.9240499E0,2.2489007E0,1.2419754E0,1.0069252E0],"tree_param":{"num_deleted":"0","num_feature":"52","num_nodes":"5","size_leaf_vector":"1"}},{"base_weights":[-4.495914E-3,-1.913483E-1,2.4524266E-2,-3.0309264E-2,-2.4263647E-3],"categories":[],"categories_nodes":[],"categories_segments":[],"categories_sizes":[],"default_left":[0,0,0,0,0],"id":70,"left_children":[1,3,-1,-1,-1],"loss_changes":[2.8702652E-1,5.8085248E-2,0E0,0E0,0E0],"parents":[2147483647,0,0,1,1],"right_children":[2,4,-1,-1,-1],"split_conditions":[2.45E2,1.72E2,2.4524266E-2,-3.0309264E-2,-2.4263647E-3],"split_indices":[43,16,0,0,0],"split_type":[0,0,0,0,0],"sum_hessian":[4.145261E0,2.504912E0,1.6403491E0,1.0132532E0,1.4916587E0],"tree_param":{"num_deleted":"0","num_feature":"52","num_nodes":"5","size_leaf_vector":"1"}},{"base_weights":[-5.5294293E-3,2.0248793E-1,-2.413722E-2,5.6318004E-2,-3.0755246E-2],"categories":[],"categories_nodes":[],"categories_segments":[],"categories_sizes":[],"default_left":[0,0,0,0,0],"id":71,"left_children":[1,3,-1,-1,-1],"loss_changes":[3.0030024E-1,7.74211E-1,0E0,0E0,0E0],"parents":[2147483647,0,0,1,1],"right_children":[2,4,-1,-1,-1],"split_conditions":[2.92E4,1.4084507E4,-2.413722E-2,5.6318004E-2,-3.0755246E-2],"split_indices":[42,31,0,0,0],"split_type":[0,0,0,0,0],"sum_hessian":[4.124917E0,2.2669005E0,1.8580167E0,1.2668313E0,1.0000691E0],"tree_param":{"num_deleted":"0","num_feature":"52","num_nodes":"5","size_leaf_vector":"1"}},{"base_weights":[-4.2199427E-3,1.9377574E-1,-2.2374539E-2,-2.9533986E-2,5.5139404E-2],"categories":[],"categories_nodes":[],"categories_segments":[],"categories_sizes":[],"default_left":[0,0,0,0,0],"id":72,"left_children":[1,3,-1,-1,-1],"loss_changes":[2.649244E-1,7.2540253E-1,0E0,0E0,0E0],"parents":[2147483647,0,0,1,1],"right_children":[2,4,-1,-1,-1],"split_conditions":[2.92E4,2.54E2,-2.2374539E-2,-2.9533986E-2,5.5139404E-2],"split_indices":[42,42,0,0,0],"split_type":[0,0,0,0,0],"sum_hessian":[4.097608E0,2.2161248E0,1.8814833E0,1.0095323E0,1.2065924E0],"tree_param":{"num_deleted":"0","num_feature":"52","num_nodes":"5","size_leaf_vector":"1"}},{"base_weights":[-2.7344122E-3,-2.2086212E-2,2.0126586E-1,5.3356763E-2,-2.543349E-2],"categories":[],"categories_nodes":[],"categories_segments":[],"categories_sizes":[],"default_left":[0,0,0,0,0],"id":73,"left_children":[1,-1,3,-1,-1],"loss_changes":[2.7019474E-1,0E0,6.117945E-1,0E0,0E0],"parents":[2147483647,0,0,2,2],"right_children":[2,-1,4,-1,-1],"split_conditions":[6E0,-2.2086212E-2,6.42E2,5.3356763E-2,-2.543349E-2],"split_indices":[33,0,27,0,0],"split_type":[0,0,0,0,0],"sum_hessian":[4.073086E0,1.9284407E0,2.1446452E0,1.1411756E0,1.0034696E0],"tree_param":{"num_deleted":"0","num_feature":"52","num_nodes":"5","size_leaf_vector":"1"}},{"base_weights":[-9.207184E-4,-1.7945151E-1,2.3537947E-2,-2.8050546E-2,-2.2241045E-3],"categories":[],"categories_nodes":[],"categories_segments":[],"categories_sizes":[],"default_left":[0,0,0,0,0],"id":74,"left_children":[1,3,-1,-1,-1],"loss_changes":[2.5525737E-1,4.84704E-2,0E0,0E0,0E0],"parents":[2147483647,0,0,1,1],"right_children":[2,4,-1,-1,-1],"split_conditions":[2.45E2,1.73E2,2.3537947E-2,-2.8050546E-2,-2.2241045E-3],"split_indices":[43,1,0,0,0],"split_type":[0,0,0,0,0],"sum_hessian":[4.049397E0,2.4436986E0,1.6056983E0,1.0101278E0,1.433571E0],"tree_param":{"num_deleted":"0","num_feature":"52","num_nodes":"5","size_leaf_vector":"1"}},{"base_weights":[-2.0108277E-3,1.957405E-1,-2.2180269E-2,-2.8264744E-2,5.455887E-2],"categories":[],"categories_nodes":[],"categories_segments":[],"categories_sizes":[],"default_left":[0,0,0,0,0],"id":75,"left_children":[1,3,-1,-1,-1],"loss_changes":[2.6200038E-1,6.8617E-1,0E0,0E0,0E0],"parents":[2147483647,0,0,1,1],"right_children":[2,4,-1,-1,-1],"split_conditions":[4.949602E6,2.54E2,-2.2180269E-2,-2.8264744E-2,5.455887E-2],"split_indices":[16,42,0,0,0],"split_type":[0,0,0,0,0],"sum_hessian":[4.0290804E0,2.178482E0,1.8505981E0,1.0013312E0,1.1771508E0],"tree_param":{"num_deleted":"0","num_feature":"52","num_nodes":"5","size_leaf_vector":"1"}},{"base_weights":[-6.1715377E-4,-2.0811422E-2,1.9728109E-1,5.174489E-2,-2.316462E-2],"categories":[],"categories_nodes":[],"categories_segments":[],"categories_sizes":[],"default_left":[0,0,0,0,0],"id":76,"left_children":[1,-1,3,-1,-1],"loss_changes":[2.4654758E-1,0E0,5.421131E-1,0E0,0E0],"parents":[2147483647,0,0,2,2],"right_children":[2,-1,4,-1,-1],"split_conditions":[6E0,-2.0811422E-2,9.5875E1,5.174489E-2,-2.316462E-2],"split_indices":[33,0,6,0,0],"split_type":[0,0,0,0,0],"sum_hessian":[4.004239E0,1.929514E0,2.0747252E0,1.0698035E0,1.0049216E0],"tree_param":{"num_deleted":"0","num_feature":"52","num_nodes":"5","size_leaf_vector":"1"}},{"base_weights":[1.3555855E-3,1.9158976E-1,-2.085558E-2,5.329888E-2,-2.6422543E-2],"categories":[],"categories_nodes":[],"categories_segments":[],"categories_sizes":[],"default_left":[0,0,0,0,0],"id":77,"left_children":[1,3,-1,-1,-1],"loss_changes":[2.389581E-1,6.2875324E-1,0E0,0E0,0E0],"parents":[2147483647,0,0,1,1],"right_children":[2,4,-1,-1,-1],"split_conditions":[2.92E4,1.4084507E4,-2.085558E-2,5.329888E-2,-2.6422543E-2],"split_indices":[42,31,0,0,0],"split_type":[0,0,0,0,0],"sum_hessian":[3.9834561E0,2.135459E0,1.8479973E0,1.1241659E0,1.011293E0],"tree_param":{"num_deleted":"0","num_feature":"52","num_nodes":"5","size_leaf_vector":"1"}},{"base_weights":[2.863884E-3,-1.6934185E-1,2.2756476E-2,-2.603416E-2,-2.1410014E-3],"categories":[],"categories_nodes":[],"categories_segments":[],"categories_sizes":[],"default_left":[0,0,0,0,0],"id":78,"left_children":[1,3,-1,-1,-1],"loss_changes":[2.3047957E-1,3.994845E-2,0E0,0E0,0E0],"parents":[2147483647,0,0,1,1],"right_children":[2,4,-1,-1,-1],"split_conditions":[2.45E2,1.73E2,2.2756476E-2,-2.603416E-2,-2.1410014E-3],"split_indices":[43,1,0,0,0],"split_type":[0,0,0,0,0],"sum_hessian":[3.960446E0,2.381605E0,1.5788411E0,1.0040756E0,1.3775293E0],"tree_param":{"num_deleted":"0","num_feature":"52","num_nodes":"5","size_leaf_vector":"1"}},{"base_weights":[1.5897322E-3,1.9271356E-1,-2.0874338E-2,-2.5760228E-2,5.2953135E-2],"categories":[],"categories_nodes":[],"categories_segments":[],"categories_sizes":[],"default_left":[0,0,0,0,0],"id":79,"left_children":[1,3,-1,-1,-1],"loss_changes":[2.3879728E-1,6.078023E-1,0E0,0E0,0E0],"parents":[2147483647,0,0,1,1],"right_children":[2,4,-1,-1,-1],"split_conditions":[4.949602E6,2.54E2,-2.0874338E-2,-2.5760228E-2,5.2953135E-2],"split_indices":[16,42,0,0,0],"split_type":[0,0,0,0,0],"sum_hessian":[3.9395828E0,2.1079328E0,1.8316499E0,1.0026313E0,1.1053014E0],"tree_param":{"num_deleted":"0","num_feature":"52","num_nodes":"5","size_leaf_vector":"1"}},{"base_weights":[3.111236E-3,1.5484099E-1,-2.5588064E-2,-2.155712E-2,5.3298056E-2],"categories":[],"categories_nodes":[],"categories_segments":[],"categories_sizes":[],"default_left":[0,0,0,0,0],"id":80,"left_children":[1,3,-1,-1,-1],"loss_changes":[2.328363E-1,6.364287E-1,0E0,0E0,0E0],"parents":[2147483647,0,0,1,1],"right_children":[2,4,-1,-1,-1],"split_conditions":[6.9E1,1.2276E4,-2.5588064E-2,-2.155712E-2,5.3298056E-2],"split_indices":[17,19,0,0,0],"split_type":[0,0,0,0,0],"sum_hessian":[3.9168284E0,2.7234445E0,1.1933838E0,1.5929567E0,1.1304878E0],"tree_param":{"num_deleted":"0","num_feature":"52","num_nodes":"5","size_leaf_vector":"1"}},{"base_weights":[4.429953E-3,1.9581676E-1,-2.0829313E-2,5.2488815E-2,-2.4549257E-2],"categories":[],"categories_nodes":[],"categories_segments":[],"categories_sizes":[],"default_left":[0,0,0,0,0],"id":81,"left_children":[1,3,-1,-1,-1],"loss_changes":[2.399829E-1,5.777348E-1,0E0,0E0,0E0],"parents":[2147483647,0,0,1,1],"right_children":[2,4,-1,-1,-1],"split_conditions":[2.92E4,1.4285714E4,-2.0829313E-2,5.2488815E-2,-2.4549257E-2],"split_indices":[42,31,0,0,0],"split_type":[0,0,0,0,0],"sum_hessian":[3.892752E0,2.090977E0,1.8017749E0,1.0893171E0,1.00166E0],"tree_param":{"num_deleted":"0","num_feature":"52","num_nodes":"5","size_leaf_vector":"1"}},{"base_weights":[5.8748038E-3,1.5836115E-1,-2.5340376E-2,-2.0272743E-2,5.263221E-2],"categories":[],"categories_nodes":[],"categories_segments":[],"categories_sizes":[],"default_left":[0,0,0,0,0],"id":82,"left_children":[1,3,-1,-1,-1],"loss_changes":[2.3265871E-1,5.9587765E-1,0E0,0E0,0E0],"parents":[2147483647,0,0,1,1],"right_children":[2,4,-1,-1,-1],"split_conditions":[6.9E1,2.45E2,-2.5340376E-2,-2.0272743E-2,5.263221E-2],"split_indices":[17,43,0,0,0],"split_type":[0,0,0,0,0],"sum_hessian":[3.8696694E0,2.6817236E0,1.1879457E0,1.5801438E0,1.1015798E0],"tree_param":{"num_deleted":"0","num_feature":"52","num_nodes":"5","size_leaf_vector":"1"}},{"base_weights":[7.153888E-3,1.9780728E-1,-2.0596342E-2,5.1873416E-2,-2.306607E-2],"categories":[],"categories_nodes":[],"categories_segments":[],"categories_sizes":[],"default_left":[0,0,0,0,0],"id":83,"left_children":[1,3,-1,-1,-1],"loss_changes":[2.3766582E-1,5.415531E-1,0E0,0E0,0E0],"parents":[2147483647,0,0,1,1],"right_children":[2,4,-1,-1,-1],"split_conditions":[1.5665718E6,1.4285714E4,-2.0596342E-2,5.1873416E-2,-2.306607E-2],"split_indices":[15,31,0,0,0],"split_type":[0,0,0,0,0],"sum_hessian":[3.8465986E0,2.0682204E0,1.7783782E0,1.0620568E0,1.0061635E0],"tree_param":{"num_deleted":"0","num_feature":"52","num_nodes":"5","size_leaf_vector":"1"}},{"base_weights":[8.536578E-3,1.5997241E-1,-2.4663145E-2,-1.8890752E-2,5.1727682E-2],"categories":[],"categories_nodes":[],"categories_segments":[],"categories_sizes":[],"default_left":[0,0,0,0,0],"id":84,"left_children":[1,3,-1,-1,-1],"loss_changes":[2.2586058E-1,5.507061E-1,0E0,0E0,0E0],"parents":[2147483647,0,0,1,1],"right_children":[2,4,-1,-1,-1],"split_conditions":[6.9E1,2.45E2,-2.4663145E-2,-1.8890752E-2,5.1727682E-2],"split_indices":[17,43,0,0,0],"split_type":[0,0,0,0,0],"sum_hessian":[3.8239834E0,2.6339002E0,1.1900834E0,1.571121E0,1.0627791E0],"tree_param":{"num_deleted":"0","num_feature":"52","num_nodes":"5","size_leaf_vector":"1"}},{"base_weights":[9.799071E-3,1.9609173E-1,-1.9776538E-2,5.1084664E-2,-2.2058971E-2],"categories":[],"categories_nodes":[],"categories_segments":[],"categories_sizes":[],"default_left":[0,0,0,0,0],"id":85,"left_children":[1,3,-1,-1,-1],"loss_changes":[2.2447562E-1,5.1047003E-1,0E0,0E0,0E0],"parents":[2147483647,0,0,1,1],"right_children":[2,4,-1,-1,-1],"split_conditions":[4.949602E6,1.4285714E4,-1.9776538E-2,5.1084664E-2,-2.2058971E-2],"split_indices":[16,31,0,0,0],"split_type":[0,0,0,0,0],"sum_hessian":[3.8023365E0,2.0329773E0,1.769359E0,1.0293976E0,1.0035799E0],"tree_param":{"num_deleted":"0","num_feature":"52","num_nodes":"5","size_leaf_vector":"1"}},{"base_weights":[1.10803945E-2,1.6166514E-1,-2.4067823E-2,-1.806437E-2,5.111747E-2],"categories":[],"categories_nodes":[],"categories_segments":[],"categories_sizes":[],"default_left":[0,0,0,0,0],"id":86,"left_children":[1,3,-1,-1,-1],"loss_changes":[2.2013333E-1,5.217698E-1,0E0,0E0,0E0],"parents":[2147483647,0,0,1,1],"right_children":[2,4,-1,-1,-1],"split_conditions":[6.9E1,1.2276E4,-2.4067823E-2,-1.806437E-2,5.111747E-2],"split_indices":[17,19,0,0,0],"split_type":[0,0,0,0,0],"sum_hessian":[3.7802486E0,2.5893397E0,1.190909E0,1.552235E0,1.0371046E0],"tree_param":{"num_deleted":"0","num_feature":"52","num_nodes":"5","size_leaf_vector":"1"}},{"base_weights":[1.2274758E-2,2.02081E-1,-2.0269519E-2,5.0607134E-2,-2.0144917E-2],"categories":[],"categories_nodes":[],"categories_segments":[],"categories_sizes":[],"default_left":[0,0,0,0,0],"id":87,"left_children":[1,3,-1,-1,-1],"loss_changes":[2.3514876E-1,4.7342592E-1,0E0,0E0,0E0],"parents":[2147483647,0,0,1,1],"right_children":[2,4,-1,-1,-1],"split_conditions":[2.92E4,1.4285714E4,-2.0269519E-2,5.0607134E-2,-2.0144917E-2],"split_indices":[42,31,0,0,0],"split_type":[0,0,0,0,0],"sum_hessian":[3.7592006E0,2.0282915E0,1.7309091E0,1.0118937E0,1.0163976E0],"tree_param":{"num_deleted":"0","num_feature":"52","num_nodes":"5","size_leaf_vector":"1"}},{"base_weights":[1.3555473E-2,1.6458045E-1,-2.379462E-2,-1.6994154E-2,5.0490327E-2],"categories":[],"categories_nodes":[],"categories_segments":[],"categories_sizes":[],"default_left":[0,0,0,0,0],"id":88,"left_children":[1,3,-1,-1,-1],"loss_changes":[2.1910371E-1,4.9008304E-1,0E0,0E0,0E0],"parents":[2147483647,0,0,1,1],"right_children":[2,4,-1,-1,-1],"split_conditions":[6.9E1,2.45E2,-2.379462E-2,-1.6994154E-2,5.0490327E-2],"split_indices":[17,43,0,0,0],"split_type":[0,0,0,0,0],"sum_hessian":[3.737442E0,2.551121E0,1.1863211E0,1.5389997E0,1.0121213E0],"tree_param":{"num_deleted":"0","num_feature":"52","num_nodes":"5","size_leaf_vector":"1"}},{"base_weights":[1.4661079E-2,1.996916E-2,-1.9379724E-2],"categories":[],"categories_nodes":[],"categories_segments":[],"categories_sizes":[],"default_left":[0,0,0],"id":89,"left_children":[1,-1,-1],"loss_changes":[2.2064224E-1,0E0,0E0],"parents":[2147483647,0,0],"right_children":[2,-1,-1],"split_conditions":[4.949602E6,1.996916E-2,-1.9379724E-2],"split_indices":[16,0,0],"split_type":[0,0,0],"sum_hessian":[3.7170634E0,1.9914657E0,1.7255979E0],"tree_param":{"num_deleted":"0","num_feature":"52","num_nodes":"3","size_leaf_vector":"1"}},{"base_weights":[1.3446878E-2,2.036348E-2,-1.7643372E-2],"categories":[],"categories_nodes":[],"categories_segments":[],"categories_sizes":[],"default_left":[0,0,0],"id":90,"left_children":[1,-1,-1],"loss_changes":[2.0587505E-1,0E0,0E0],"parents":[2147483647,0,0],"right_children":[2,-1,-1],"split_conditions":[5.2E1,2.036348E-2,-1.7643372E-2],"split_indices":[17,0,0],"split_type":[0,0,0],"sum_hessian":[3.7059796E0,1.8153026E0,1.890677E0],"tree_param":{"num_deleted":"0","num_feature":"52","num_nodes":"3","size_leaf_vector":"1"}},{"base_weights":[1.2757686E-2,1.9417547E-2,-1.8905906E-2],"categories":[],"categories_nodes":[],"categories_segments":[],"categories_sizes":[],"default_left":[0,0,0],"id":91,"left_children":[1,-1,-1],"loss_changes":[2.0915078E-1,0E0,0E0],"parents":[2147483647,0,0],"right_children":[2,-1,-1],"split_conditions":[2.92E4,1.9417547E-2,-1.8905906E-2],"split_indices":[42,0,0],"split_type":[0,0,0],"sum_hessian":[3.7097878E0,1.9735658E0,1.7362221E0],"tree_param":{"num_deleted":"0","num_feature":"52","num_nodes":"3","size_leaf_vector":"1"}},{"base_weights":[1.170726E-2,-1.7353745E-2,1.9900275E-2],"categories":[],"categories_nodes":[],"categories_segments":[],"categories_sizes":[],"default_left":[0,0,0],"id":92,"left_children":[1,-1,-1],"loss_changes":[1.975866E-1,0E0,0E0],"parents":[2147483647,0,0],"right_children":[2,-1,-1],"split_conditions":[6E0,-1.7353745E-2,1.9900275E-2],"split_indices":[33,0,0],"split_type":[0,0,0],"sum_hessian":[3.6995194E0,1.8968728E0,1.8026468E0],"tree_param":{"num_deleted":"0","num_feature":"52","num_nodes":"3","size_leaf_vector":"1"}},{"base_weights":[1.1145538E-2,1.873575E-2,-1.8157886E-2],"categories":[],"categories_nodes":[],"categories_segments":[],"categories_sizes":[],"default_left":[0,0,0],"id":93,"left_children":[1,-1,-1],"loss_changes":[1.9375543E-1,0E0,0E0],"parents":[2147483647,0,0],"right_children":[2,-1,-1],"split_conditions":[4.949602E6,1.873575E-2,-1.8157886E-2],"split_indices":[16,0,0],"split_type":[0,0,0],"sum_hessian":[3.7035823E0,1.9492185E0,1.7543638E0],"tree_param":{"num_deleted":"0","num_feature":"52","num_nodes":"3","size_leaf_vector":"1"}},{"base_weights":[1.0244095E-2,1.5428625E-1,-2.2031387E-2,-9.772846E-3,3.5042875E-2],"categories":[],"categories_nodes":[],"categories_segments":[],"categories_sizes":[],"default_left":[0,0,0,0,0],"id":94,"left_children":[1,3,-1,-1,-1],"loss_changes":[1.8988995E-1,2.0613638E-1,0E0,0E0,0E0],"parents":[2147483647,0,0,1,1],"right_children":[2,4,-1,-1,-1],"split_conditions":[6.9E1,1.1754667E4,-2.2031387E-2,-9.772846E-3,3.5042875E-2],"split_indices":[17,19,0,0,0],"split_type":[0,0,0,0,0],"sum_hessian":[3.6943169E0,2.4773774E0,1.2169394E0,1.3038573E0,1.1735202E0],"tree_param":{"num_deleted":"0","num_feature":"52","num_nodes":"5","size_leaf_vector":"1"}},{"base_weights":[1.0099479E-2,1.8602742E-2,-1.826748E-2],"categories":[],"categories_nodes":[],"categories_segments":[],"categories_sizes":[],"default_left":[0,0,0],"id":95,"left_children":[1,-1,-1],"loss_changes":[1.9301161E-1,0E0,0E0],"parents":[2147483647,0,0],"right_children":[2,-1,-1],"split_conditions":[2.92E4,1.8602742E-2,-1.826748E-2],"split_indices":[42,0,0],"split_type":[0,0,0],"sum_hessian":[3.6891344E0,1.9471459E0,1.7419884E0],"tree_param":{"num_deleted":"0","num_feature":"52","num_nodes":"3","size_leaf_vector":"1"}},{"base_weights":[9.263855E-3,-1.6572764E-2,1.9071741E-2],"categories":[],"categories_nodes":[],"categories_segments":[],"categories_sizes":[],"default_left":[0,0,0],"id":96,"left_children":[1,-1,-1],"loss_changes":[1.8021125E-1,0E0,0E0],"parents":[2147483647,0,0],"right_children":[2,-1,-1],"split_conditions":[6E0,-1.6572764E-2,1.9071741E-2],"split_indices":[33,0,0],"split_type":[0,0,0],"sum_hessian":[3.680027E0,1.91749E0,1.762537E0],"tree_param":{"num_deleted":"0","num_feature":"52","num_nodes":"3","size_leaf_vector":"1"}},{"base_weights":[8.912677E-3,1.7960656E-2,-1.7518558E-2],"categories":[],"categories_nodes":[],"categories_segments":[],"categories_sizes":[],"default_left":[0,0,0],"id":97,"left_children":[1,-1,-1],"loss_changes":[1.7868075E-1,0E0,0E0],"parents":[2147483647,0,0],"right_children":[2,-1,-1],"split_conditions":[4.949602E6,1.7960656E-2,-1.7518558E-2],"split_indices":[16,0,0],"split_type":[0,0,0],"sum_hessian":[3.6847687E0,1.9246514E0,1.7601174E0],"tree_param":{"num_deleted":"0","num_feature":"52","num_nodes":"3","size_leaf_vector":"1"}},{"base_weights":[8.236493E-3,1.4742082E-1,-2.0975148E-2,-1.0128161E-2,3.427396E-2],"categories":[],"categories_nodes":[],"categories_segments":[],"categories_sizes":[],"default_left":[0,0,0,0,0],"id":98,"left_children":[1,3,-1,-1,-1],"loss_changes":[1.7281586E-1,2.0189002E-1,0E0,0E0,0E0],"parents":[2147483647,0,0,1,1],"right_children":[2,4,-1,-1,-1],"split_conditions":[6.9E1,1.1754667E4,-2.0975148E-2,-1.0128161E-2,3.427396E-2],"split_indices":[17,19,0,0,0],"split_type":[0,0,0,0,0],"sum_hessian":[3.6767218E0,2.4415338E0,1.2351878E0,1.2857822E0,1.1557517E0],"tree_param":{"num_deleted":"0","num_feature":"52","num_nodes":"5","size_leaf_vector":"1"}},{"base_weights":[8.264383E-3,1.7855939E-2,-1.7584523E-2],"categories":[],"categories_nodes":[],"categories_segments":[],"categories_sizes":[],"default_left":[0,0,0],"id":99,"left_children":[1,-1,-1],"loss_changes":[1.7788683E-1,0E0,0E0],"parents":[2147483647,0,0],"right_children":[2,-1,-1],"split_conditions":[2.92E4,1.7855939E-2,-1.7584523E-2],"split_indices":[42,0,0],"split_type":[0,0,0],"sum_hessian":[3.6722243E0,1.9233441E0,1.7488801E0],"tree_param":{"num_deleted":"0","num_feature":"52","num_nodes":"3","size_leaf_vector":"1"}}]},"name":"gbtree"},"learner_model_param":{"base_score":"[9.9960667E-1]","boost_from_average":"1","num_class":"0","num_feature":"52","num_target":"1"},"objective":{"name":"binary:logistic","reg_loss_param":{"scale_pos_weight":"1"}}},"version":[3,2,0]}